digraph Tree {
node [shape=box, style="filled, rounded", color="black", fontname=helvetica] ;
edge [fontname=helvetica] ;
0 [label=<단선횟수 &le; 11.5<br/>gini = 0.497<br/>samples = 23826<br/>value = [11053, 12773]<br/>class = 유지>, fillcolor="#e4f2fb"] ;
1 [label=<국내통화시간_분 &le; 499.65<br/>gini = 0.49<br/>samples = 22272<br/>value = [9567, 12705]<br/>class = 유지>, fillcolor="#cee7f9"] ;
0 -> 1 [labeldistance=2.5, labelangle=45, headlabel="True"] ;
2 [label=<국제통화시간_분 &le; 100.045<br/>gini = 0.459<br/>samples = 3658<br/>value = [2353, 1305]<br/>class = 이탈>, fillcolor="#f3c7a7"] ;
1 -> 2 ;
3 [label=<요금제 &le; 3.0<br/>gini = 0.407<br/>samples = 3074<br/>value = [2200, 874]<br/>class = 이탈>, fillcolor="#efb388"] ;
2 -> 3 ;
4 [label=<평균납부요금 &le; 0.469<br/>gini = 0.496<br/>samples = 1171<br/>value = [532, 639]<br/>class = 유지>, fillcolor="#deeffb"] ;
3 -> 4 ;
5 [label=<납부여부 &le; 2.5<br/>gini = 0.474<br/>samples = 949<br/>value = [367, 582]<br/>class = 유지>, fillcolor="#b6dbf5"] ;
4 -> 5 ;
6 [label=<평균납부요금 &le; 0.238<br/>gini = 0.083<br/>samples = 46<br/>value = [44, 2]<br/>class = 이탈>, fillcolor="#e68742"] ;
5 -> 6 ;
7 [label=<국내통화시간_분 &le; 476.25<br/>gini = 0.043<br/>samples = 45<br/>value = [44, 1]<br/>class = 이탈>, fillcolor="#e6843d"] ;
6 -> 7 ;
8 [label=<gini = 0.245<br/>samples = 7<br/>value = [6, 1]<br/>class = 이탈>, fillcolor="#e9965a"] ;
7 -> 8 ;
9 [label=<gini = 0.0<br/>samples = 38<br/>value = [38, 0]<br/>class = 이탈>, fillcolor="#e58139"] ;
7 -> 9 ;
10 [label=<gini = 0.0<br/>samples = 1<br/>value = [0, 1]<br/>class = 유지>, fillcolor="#399de5"] ;
6 -> 10 ;
11 [label=<서비스기간 &le; 15.95<br/>gini = 0.459<br/>samples = 903<br/>value = [323, 580]<br/>class = 유지>, fillcolor="#a7d4f3"] ;
5 -> 11 ;
12 [label=<평균납부요금 &le; 0.243<br/>gini = 0.494<br/>samples = 150<br/>value = [83, 67]<br/>class = 이탈>, fillcolor="#fae7d9"] ;
11 -> 12 ;
13 [label=<gini = 0.416<br/>samples = 44<br/>value = [31, 13]<br/>class = 이탈>, fillcolor="#f0b68c"] ;
12 -> 13 ;
14 [label=<gini = 0.5<br/>samples = 106<br/>value = [52, 54]<br/>class = 유지>, fillcolor="#f8fbfe"] ;
12 -> 14 ;
15 [label=<성별 &le; 0.5<br/>gini = 0.434<br/>samples = 753<br/>value = [240, 513]<br/>class = 유지>, fillcolor="#96cbf1"] ;
11 -> 15 ;
16 [label=<gini = 0.464<br/>samples = 382<br/>value = [140, 242]<br/>class = 유지>, fillcolor="#acd6f4"] ;
15 -> 16 ;
17 [label=<gini = 0.394<br/>samples = 371<br/>value = [100, 271]<br/>class = 유지>, fillcolor="#82c1ef"] ;
15 -> 17 ;
18 [label=<성별 &le; 0.5<br/>gini = 0.382<br/>samples = 222<br/>value = [165, 57]<br/>class = 이탈>, fillcolor="#eead7d"] ;
4 -> 18 ;
19 [label=<국제통화시간_분 &le; 44.026<br/>gini = 0.129<br/>samples = 115<br/>value = [107, 8]<br/>class = 이탈>, fillcolor="#e78a48"] ;
18 -> 19 ;
20 [label=<국제통화시간_분 &le; 24.751<br/>gini = 0.087<br/>samples = 110<br/>value = [105, 5]<br/>class = 이탈>, fillcolor="#e68742"] ;
19 -> 20 ;
21 [label=<gini = 0.044<br/>samples = 88<br/>value = [86, 2]<br/>class = 이탈>, fillcolor="#e6843e"] ;
20 -> 21 ;
22 [label=<gini = 0.236<br/>samples = 22<br/>value = [19, 3]<br/>class = 이탈>, fillcolor="#e99558"] ;
20 -> 22 ;
23 [label=<서비스기간 &le; 38.95<br/>gini = 0.48<br/>samples = 5<br/>value = [2, 3]<br/>class = 유지>, fillcolor="#bddef6"] ;
19 -> 23 ;
24 [label=<gini = 0.444<br/>samples = 3<br/>value = [2, 1]<br/>class = 이탈>, fillcolor="#f2c09c"] ;
23 -> 24 ;
25 [label=<gini = 0.0<br/>samples = 2<br/>value = [0, 2]<br/>class = 유지>, fillcolor="#399de5"] ;
23 -> 25 ;
26 [label=<연령 &le; 24.5<br/>gini = 0.496<br/>samples = 107<br/>value = [58, 49]<br/>class = 이탈>, fillcolor="#fbebe0"] ;
18 -> 26 ;
27 [label=<단선횟수 &le; 10.5<br/>gini = 0.174<br/>samples = 52<br/>value = [47, 5]<br/>class = 이탈>, fillcolor="#e88e4e"] ;
26 -> 27 ;
28 [label=<gini = 0.113<br/>samples = 50<br/>value = [47, 3]<br/>class = 이탈>, fillcolor="#e78946"] ;
27 -> 28 ;
29 [label=<gini = 0.0<br/>samples = 2<br/>value = [0, 2]<br/>class = 유지>, fillcolor="#399de5"] ;
27 -> 29 ;
30 [label=<연령 &le; 50.5<br/>gini = 0.32<br/>samples = 55<br/>value = [11, 44]<br/>class = 유지>, fillcolor="#6ab6ec"] ;
26 -> 30 ;
31 [label=<gini = 0.12<br/>samples = 47<br/>value = [3, 44]<br/>class = 유지>, fillcolor="#46a4e7"] ;
30 -> 31 ;
32 [label=<gini = 0.0<br/>samples = 8<br/>value = [8, 0]<br/>class = 이탈>, fillcolor="#e58139"] ;
30 -> 32 ;
33 [label=<국내통화시간_분 &le; 182.55<br/>gini = 0.216<br/>samples = 1903<br/>value = [1668, 235]<br/>class = 이탈>, fillcolor="#e99355"] ;
3 -> 33 ;
34 [label=<성별 &le; 0.5<br/>gini = 0.397<br/>samples = 413<br/>value = [300, 113]<br/>class = 이탈>, fillcolor="#efb084"] ;
33 -> 34 ;
35 [label=<평균납부요금 &le; 0.336<br/>gini = 0.085<br/>samples = 203<br/>value = [194, 9]<br/>class = 이탈>, fillcolor="#e68742"] ;
34 -> 35 ;
36 [label=<gini = 0.0<br/>samples = 2<br/>value = [0, 2]<br/>class = 유지>, fillcolor="#399de5"] ;
35 -> 36 ;
37 [label=<국제통화시간_분 &le; 56.533<br/>gini = 0.067<br/>samples = 201<br/>value = [194, 7]<br/>class = 이탈>, fillcolor="#e68640"] ;
35 -> 37 ;
38 [label=<gini = 0.059<br/>samples = 197<br/>value = [191, 6]<br/>class = 이탈>, fillcolor="#e6853f"] ;
37 -> 38 ;
39 [label=<gini = 0.375<br/>samples = 4<br/>value = [3, 1]<br/>class = 이탈>, fillcolor="#eeab7b"] ;
37 -> 39 ;
40 [label=<연령 &le; 24.5<br/>gini = 0.5<br/>samples = 210<br/>value = [106, 104]<br/>class = 이탈>, fillcolor="#fffdfb"] ;
34 -> 40 ;
41 [label=<국제통화시간_분 &le; 40.635<br/>gini = 0.16<br/>samples = 91<br/>value = [83, 8]<br/>class = 이탈>, fillcolor="#e88d4c"] ;
40 -> 41 ;
42 [label=<gini = 0.095<br/>samples = 80<br/>value = [76, 4]<br/>class = 이탈>, fillcolor="#e68843"] ;
41 -> 42 ;
43 [label=<gini = 0.463<br/>samples = 11<br/>value = [7, 4]<br/>class = 이탈>, fillcolor="#f4c9aa"] ;
41 -> 43 ;
44 [label=<연령 &le; 53.5<br/>gini = 0.312<br/>samples = 119<br/>value = [23, 96]<br/>class = 유지>, fillcolor="#68b4eb"] ;
40 -> 44 ;
45 [label=<gini = 0.21<br/>samples = 109<br/>value = [13, 96]<br/>class = 유지>, fillcolor="#54aae9"] ;
44 -> 45 ;
46 [label=<gini = 0.0<br/>samples = 10<br/>value = [10, 0]<br/>class = 이탈>, fillcolor="#e58139"] ;
44 -> 46 ;
47 [label=<국제통화시간_분 &le; 42.349<br/>gini = 0.15<br/>samples = 1490<br/>value = [1368, 122]<br/>class = 이탈>, fillcolor="#e78c4b"] ;
33 -> 47 ;
48 [label=<국제통화시간_분 &le; 0.08<br/>gini = 0.099<br/>samples = 692<br/>value = [656, 36]<br/>class = 이탈>, fillcolor="#e68844"] ;
47 -> 48 ;
49 [label=<gini = 0.0<br/>samples = 1<br/>value = [0, 1]<br/>class = 유지>, fillcolor="#399de5"] ;
48 -> 49 ;
50 [label=<서비스기간 &le; 58.05<br/>gini = 0.096<br/>samples = 691<br/>value = [656, 35]<br/>class = 이탈>, fillcolor="#e68844"] ;
48 -> 50 ;
51 [label=<gini = 0.094<br/>samples = 689<br/>value = [655, 34]<br/>class = 이탈>, fillcolor="#e68843"] ;
50 -> 51 ;
52 [label=<gini = 0.5<br/>samples = 2<br/>value = [1, 1]<br/>class = 이탈>, fillcolor="#ffffff"] ;
50 -> 52 ;
53 [label=<국제통화시간_분 &le; 42.52<br/>gini = 0.192<br/>samples = 798<br/>value = [712, 86]<br/>class = 이탈>, fillcolor="#e89051"] ;
47 -> 53 ;
54 [label=<연령 &le; 25.0<br/>gini = 0.444<br/>samples = 3<br/>value = [1, 2]<br/>class = 유지>, fillcolor="#9ccef2"] ;
53 -> 54 ;
55 [label=<gini = 0.0<br/>samples = 1<br/>value = [0, 1]<br/>class = 유지>, fillcolor="#399de5"] ;
54 -> 55 ;
56 [label=<gini = 0.5<br/>samples = 2<br/>value = [1, 1]<br/>class = 이탈>, fillcolor="#ffffff"] ;
54 -> 56 ;
57 [label=<성별 &le; 0.5<br/>gini = 0.189<br/>samples = 795<br/>value = [711, 84]<br/>class = 이탈>, fillcolor="#e89050"] ;
53 -> 57 ;
58 [label=<gini = 0.141<br/>samples = 393<br/>value = [363, 30]<br/>class = 이탈>, fillcolor="#e78b49"] ;
57 -> 58 ;
59 [label=<gini = 0.233<br/>samples = 402<br/>value = [348, 54]<br/>class = 이탈>, fillcolor="#e99558"] ;
57 -> 59 ;
60 [label=<납부여부 &le; 2.5<br/>gini = 0.387<br/>samples = 584<br/>value = [153, 431]<br/>class = 유지>, fillcolor="#7fc0ee"] ;
2 -> 60 ;
61 [label=<연령 &le; 35.0<br/>gini = 0.133<br/>samples = 42<br/>value = [39, 3]<br/>class = 이탈>, fillcolor="#e78b48"] ;
60 -> 61 ;
62 [label=<gini = 0.0<br/>samples = 27<br/>value = [27, 0]<br/>class = 이탈>, fillcolor="#e58139"] ;
61 -> 62 ;
63 [label=<평균납부요금 &le; 0.233<br/>gini = 0.32<br/>samples = 15<br/>value = [12, 3]<br/>class = 이탈>, fillcolor="#eca06a"] ;
61 -> 63 ;
64 [label=<gini = 0.0<br/>samples = 1<br/>value = [0, 1]<br/>class = 유지>, fillcolor="#399de5"] ;
63 -> 64 ;
65 [label=<서비스기간 &le; 49.9<br/>gini = 0.245<br/>samples = 14<br/>value = [12, 2]<br/>class = 이탈>, fillcolor="#e9965a"] ;
63 -> 65 ;
66 [label=<단선횟수 &le; 0.5<br/>gini = 0.142<br/>samples = 13<br/>value = [12, 1]<br/>class = 이탈>, fillcolor="#e78c49"] ;
65 -> 66 ;
67 [label=<gini = 0.444<br/>samples = 3<br/>value = [2, 1]<br/>class = 이탈>, fillcolor="#f2c09c"] ;
66 -> 67 ;
68 [label=<gini = 0.0<br/>samples = 10<br/>value = [10, 0]<br/>class = 이탈>, fillcolor="#e58139"] ;
66 -> 68 ;
69 [label=<gini = 0.0<br/>samples = 1<br/>value = [0, 1]<br/>class = 유지>, fillcolor="#399de5"] ;
65 -> 69 ;
70 [label=<평균납부요금 &le; 0.226<br/>gini = 0.332<br/>samples = 542<br/>value = [114, 428]<br/>class = 유지>, fillcolor="#6eb7ec"] ;
60 -> 70 ;
71 [label=<서비스기간 &le; 15.05<br/>gini = 0.17<br/>samples = 288<br/>value = [27, 261]<br/>class = 유지>, fillcolor="#4da7e8"] ;
70 -> 71 ;
72 [label=<서비스기간 &le; 12.6<br/>gini = 0.422<br/>samples = 53<br/>value = [16, 37]<br/>class = 유지>, fillcolor="#8fc7f0"] ;
71 -> 72 ;
73 [label=<평균납부요금 &le; 0.216<br/>gini = 0.091<br/>samples = 21<br/>value = [1, 20]<br/>class = 유지>, fillcolor="#43a2e6"] ;
72 -> 73 ;
74 [label=<gini = 0.0<br/>samples = 18<br/>value = [0, 18]<br/>class = 유지>, fillcolor="#399de5"] ;
73 -> 74 ;
75 [label=<gini = 0.444<br/>samples = 3<br/>value = [1, 2]<br/>class = 유지>, fillcolor="#9ccef2"] ;
73 -> 75 ;
76 [label=<국제통화시간_분 &le; 126.922<br/>gini = 0.498<br/>samples = 32<br/>value = [15, 17]<br/>class = 유지>, fillcolor="#e8f3fc"] ;
72 -> 76 ;
77 [label=<gini = 0.496<br/>samples = 22<br/>value = [12, 10]<br/>class = 이탈>, fillcolor="#fbeade"] ;
76 -> 77 ;
78 [label=<gini = 0.42<br/>samples = 10<br/>value = [3, 7]<br/>class = 유지>, fillcolor="#8ec7f0"] ;
76 -> 78 ;
79 [label=<단선횟수 &le; 7.5<br/>gini = 0.089<br/>samples = 235<br/>value = [11, 224]<br/>class = 유지>, fillcolor="#43a2e6"] ;
71 -> 79 ;
80 [label=<연령 &le; 19.5<br/>gini = 0.055<br/>samples = 212<br/>value = [6, 206]<br/>class = 유지>, fillcolor="#3fa0e6"] ;
79 -> 80 ;
81 [label=<gini = 0.172<br/>samples = 42<br/>value = [4, 38]<br/>class = 유지>, fillcolor="#4ea7e8"] ;
80 -> 81 ;
82 [label=<gini = 0.023<br/>samples = 170<br/>value = [2, 168]<br/>class = 유지>, fillcolor="#3b9ee5"] ;
80 -> 82 ;
83 [label=<서비스기간 &le; 44.133<br/>gini = 0.34<br/>samples = 23<br/>value = [5, 18]<br/>class = 유지>, fillcolor="#70b8ec"] ;
79 -> 83 ;
84 [label=<gini = 0.0<br/>samples = 13<br/>value = [0, 13]<br/>class = 유지>, fillcolor="#399de5"] ;
83 -> 84 ;
85 [label=<gini = 0.5<br/>samples = 10<br/>value = [5, 5]<br/>class = 이탈>, fillcolor="#ffffff"] ;
83 -> 85 ;
86 [label=<서비스기간 &le; 16.367<br/>gini = 0.45<br/>samples = 254<br/>value = [87, 167]<br/>class = 유지>, fillcolor="#a0d0f3"] ;
70 -> 86 ;
87 [label=<서비스기간 &le; 12.667<br/>gini = 0.497<br/>samples = 50<br/>value = [27, 23]<br/>class = 이탈>, fillcolor="#fbece2"] ;
86 -> 87 ;
88 [label=<서비스기간 &le; 9.967<br/>gini = 0.219<br/>samples = 8<br/>value = [1, 7]<br/>class = 유지>, fillcolor="#55abe9"] ;
87 -> 88 ;
89 [label=<gini = 0.0<br/>samples = 1<br/>value = [1, 0]<br/>class = 이탈>, fillcolor="#e58139"] ;
88 -> 89 ;
90 [label=<gini = 0.0<br/>samples = 7<br/>value = [0, 7]<br/>class = 유지>, fillcolor="#399de5"] ;
88 -> 90 ;
91 [label=<단선횟수 &le; 0.5<br/>gini = 0.472<br/>samples = 42<br/>value = [26, 16]<br/>class = 이탈>, fillcolor="#f5cfb3"] ;
87 -> 91 ;
92 [label=<gini = 0.492<br/>samples = 16<br/>value = [7, 9]<br/>class = 유지>, fillcolor="#d3e9f9"] ;
91 -> 92 ;
93 [label=<gini = 0.393<br/>samples = 26<br/>value = [19, 7]<br/>class = 이탈>, fillcolor="#efaf82"] ;
91 -> 93 ;
94 [label=<연령 &le; 27.5<br/>gini = 0.415<br/>samples = 204<br/>value = [60, 144]<br/>class = 유지>, fillcolor="#8bc6f0"] ;
86 -> 94 ;
95 [label=<서비스기간 &le; 52.65<br/>gini = 0.485<br/>samples = 92<br/>value = [38, 54]<br/>class = 유지>, fillcolor="#c4e2f7"] ;
94 -> 95 ;
96 [label=<gini = 0.463<br/>samples = 77<br/>value = [28, 49]<br/>class = 유지>, fillcolor="#aad5f4"] ;
95 -> 96 ;
97 [label=<gini = 0.444<br/>samples = 15<br/>value = [10, 5]<br/>class = 이탈>, fillcolor="#f2c09c"] ;
95 -> 97 ;
98 [label=<연령 &le; 64.5<br/>gini = 0.316<br/>samples = 112<br/>value = [22, 90]<br/>class = 유지>, fillcolor="#69b5eb"] ;
94 -> 98 ;
99 [label=<gini = 0.292<br/>samples = 107<br/>value = [19, 88]<br/>class = 유지>, fillcolor="#64b2eb"] ;
98 -> 99 ;
100 [label=<gini = 0.48<br/>samples = 5<br/>value = [3, 2]<br/>class = 이탈>, fillcolor="#f6d5bd"] ;
98 -> 100 ;
101 [label=<연령 &le; 25.5<br/>gini = 0.475<br/>samples = 18614<br/>value = [7214, 11400]<br/>class = 유지>, fillcolor="#b6dbf5"] ;
1 -> 101 ;
102 [label=<국제통화시간_분 &le; 179.308<br/>gini = 0.5<br/>samples = 7844<br/>value = [3928, 3916]<br/>class = 이탈>, fillcolor="#fffffe"] ;
101 -> 102 ;
103 [label=<납부여부 &le; 3.5<br/>gini = 0.435<br/>samples = 4350<br/>value = [1390, 2960]<br/>class = 유지>, fillcolor="#96cbf1"] ;
102 -> 103 ;
104 [label=<서비스기간 &le; 57.383<br/>gini = 0.137<br/>samples = 108<br/>value = [100, 8]<br/>class = 이탈>, fillcolor="#e78b49"] ;
103 -> 104 ;
105 [label=<평균납부요금 &le; 0.23<br/>gini = 0.107<br/>samples = 106<br/>value = [100, 6]<br/>class = 이탈>, fillcolor="#e78945"] ;
104 -> 105 ;
106 [label=<단선횟수 &le; 10.5<br/>gini = 0.091<br/>samples = 105<br/>value = [100, 5]<br/>class = 이탈>, fillcolor="#e68743"] ;
105 -> 106 ;
107 [label=<gini = 0.074<br/>samples = 104<br/>value = [100, 4]<br/>class = 이탈>, fillcolor="#e68641"] ;
106 -> 107 ;
108 [label=<gini = 0.0<br/>samples = 1<br/>value = [0, 1]<br/>class = 유지>, fillcolor="#399de5"] ;
106 -> 108 ;
109 [label=<gini = 0.0<br/>samples = 1<br/>value = [0, 1]<br/>class = 유지>, fillcolor="#399de5"] ;
105 -> 109 ;
110 [label=<gini = 0.0<br/>samples = 2<br/>value = [0, 2]<br/>class = 유지>, fillcolor="#399de5"] ;
104 -> 110 ;
111 [label=<서비스기간 &le; 15.583<br/>gini = 0.423<br/>samples = 4242<br/>value = [1290, 2952]<br/>class = 유지>, fillcolor="#90c8f0"] ;
103 -> 111 ;
112 [label=<서비스기간 &le; 12.417<br/>gini = 0.5<br/>samples = 727<br/>value = [359, 368]<br/>class = 유지>, fillcolor="#fafdfe"] ;
111 -> 112 ;
113 [label=<국제통화시간_분 &le; 91.618<br/>gini = 0.367<br/>samples = 215<br/>value = [52, 163]<br/>class = 유지>, fillcolor="#78bced"] ;
112 -> 113 ;
114 [label=<gini = 0.452<br/>samples = 110<br/>value = [38, 72]<br/>class = 유지>, fillcolor="#a2d1f3"] ;
113 -> 114 ;
115 [label=<gini = 0.231<br/>samples = 105<br/>value = [14, 91]<br/>class = 유지>, fillcolor="#57ace9"] ;
113 -> 115 ;
116 [label=<국제통화시간_분 &le; 96.544<br/>gini = 0.48<br/>samples = 512<br/>value = [307, 205]<br/>class = 이탈>, fillcolor="#f6d5bd"] ;
112 -> 116 ;
117 [label=<gini = 0.463<br/>samples = 294<br/>value = [187, 107]<br/>class = 이탈>, fillcolor="#f4c9aa"] ;
116 -> 117 ;
118 [label=<gini = 0.495<br/>samples = 218<br/>value = [120, 98]<br/>class = 이탈>, fillcolor="#fae8db"] ;
116 -> 118 ;
119 [label=<요금제 &le; 3.5<br/>gini = 0.389<br/>samples = 3515<br/>value = [931, 2584]<br/>class = 유지>, fillcolor="#80c0ee"] ;
111 -> 119 ;
120 [label=<성별 &le; 0.5<br/>gini = 0.413<br/>samples = 2460<br/>value = [718, 1742]<br/>class = 유지>, fillcolor="#8bc5f0"] ;
119 -> 120 ;
121 [label=<gini = 0.437<br/>samples = 1238<br/>value = [400, 838]<br/>class = 유지>, fillcolor="#98ccf1"] ;
120 -> 121 ;
122 [label=<gini = 0.385<br/>samples = 1222<br/>value = [318, 904]<br/>class = 유지>, fillcolor="#7fbfee"] ;
120 -> 122 ;
123 [label=<국제통화시간_분 &le; 100.203<br/>gini = 0.322<br/>samples = 1055<br/>value = [213, 842]<br/>class = 유지>, fillcolor="#6bb6ec"] ;
119 -> 123 ;
124 [label=<gini = 0.433<br/>samples = 595<br/>value = [189, 406]<br/>class = 유지>, fillcolor="#95cbf1"] ;
123 -> 124 ;
125 [label=<gini = 0.099<br/>samples = 460<br/>value = [24, 436]<br/>class = 유지>, fillcolor="#44a2e6"] ;
123 -> 125 ;
126 [label=<납부여부 &le; 3.5<br/>gini = 0.397<br/>samples = 3494<br/>value = [2538, 956]<br/>class = 이탈>, fillcolor="#efb084"] ;
102 -> 126 ;
127 [label=<서비스기간 &le; 11.6<br/>gini = 0.077<br/>samples = 50<br/>value = [48, 2]<br/>class = 이탈>, fillcolor="#e68641"] ;
126 -> 127 ;
128 [label=<서비스기간 &le; 10.383<br/>gini = 0.5<br/>samples = 2<br/>value = [1, 1]<br/>class = 이탈>, fillcolor="#ffffff"] ;
127 -> 128 ;
129 [label=<gini = 0.0<br/>samples = 1<br/>value = [1, 0]<br/>class = 이탈>, fillcolor="#e58139"] ;
128 -> 129 ;
130 [label=<gini = 0.0<br/>samples = 1<br/>value = [0, 1]<br/>class = 유지>, fillcolor="#399de5"] ;
128 -> 130 ;
131 [label=<국제통화시간_분 &le; 188.05<br/>gini = 0.041<br/>samples = 48<br/>value = [47, 1]<br/>class = 이탈>, fillcolor="#e6843d"] ;
127 -> 131 ;
132 [label=<연령 &le; 17.5<br/>gini = 0.5<br/>samples = 2<br/>value = [1, 1]<br/>class = 이탈>, fillcolor="#ffffff"] ;
131 -> 132 ;
133 [label=<gini = 0.0<br/>samples = 1<br/>value = [0, 1]<br/>class = 유지>, fillcolor="#399de5"] ;
132 -> 133 ;
134 [label=<gini = 0.0<br/>samples = 1<br/>value = [1, 0]<br/>class = 이탈>, fillcolor="#e58139"] ;
132 -> 134 ;
135 [label=<gini = 0.0<br/>samples = 46<br/>value = [46, 0]<br/>class = 이탈>, fillcolor="#e58139"] ;
131 -> 135 ;
136 [label=<국제통화시간_분 &le; 440.998<br/>gini = 0.401<br/>samples = 3444<br/>value = [2490, 954]<br/>class = 이탈>, fillcolor="#efb185"] ;
126 -> 136 ;
137 [label=<국제통화시간_분 &le; 435.503<br/>gini = 0.407<br/>samples = 2889<br/>value = [2066, 823]<br/>class = 이탈>, fillcolor="#efb388"] ;
136 -> 137 ;
138 [label=<서비스기간 &le; 9.817<br/>gini = 0.405<br/>samples = 2863<br/>value = [2055, 808]<br/>class = 이탈>, fillcolor="#efb387"] ;
137 -> 138 ;
139 [label=<gini = 0.0<br/>samples = 17<br/>value = [17, 0]<br/>class = 이탈>, fillcolor="#e58139"] ;
138 -> 139 ;
140 [label=<gini = 0.407<br/>samples = 2846<br/>value = [2038, 808]<br/>class = 이탈>, fillcolor="#efb388"] ;
138 -> 140 ;
141 [label=<연령 &le; 19.5<br/>gini = 0.488<br/>samples = 26<br/>value = [11, 15]<br/>class = 유지>, fillcolor="#cae5f8"] ;
137 -> 141 ;
142 [label=<gini = 0.346<br/>samples = 9<br/>value = [7, 2]<br/>class = 이탈>, fillcolor="#eca572"] ;
141 -> 142 ;
143 [label=<gini = 0.36<br/>samples = 17<br/>value = [4, 13]<br/>class = 유지>, fillcolor="#76bbed"] ;
141 -> 143 ;
144 [label=<연령 &le; 24.5<br/>gini = 0.361<br/>samples = 555<br/>value = [424, 131]<br/>class = 이탈>, fillcolor="#eda876"] ;
136 -> 144 ;
145 [label=<국내통화시간_분 &le; 2251.2<br/>gini = 0.341<br/>samples = 509<br/>value = [398, 111]<br/>class = 이탈>, fillcolor="#eca470"] ;
144 -> 145 ;
146 [label=<gini = 0.311<br/>samples = 368<br/>value = [297, 71]<br/>class = 이탈>, fillcolor="#eb9f68"] ;
145 -> 146 ;
147 [label=<gini = 0.406<br/>samples = 141<br/>value = [101, 40]<br/>class = 이탈>, fillcolor="#efb387"] ;
145 -> 147 ;
148 [label=<평균납부요금 &le; 0.162<br/>gini = 0.491<br/>samples = 46<br/>value = [26, 20]<br/>class = 이탈>, fillcolor="#f9e2d1"] ;
144 -> 148 ;
149 [label=<gini = 0.455<br/>samples = 40<br/>value = [26, 14]<br/>class = 이탈>, fillcolor="#f3c5a4"] ;
148 -> 149 ;
150 [label=<gini = 0.0<br/>samples = 6<br/>value = [0, 6]<br/>class = 유지>, fillcolor="#399de5"] ;
148 -> 150 ;
151 [label=<납부여부 &le; 3.5<br/>gini = 0.424<br/>samples = 10770<br/>value = [3286, 7484]<br/>class = 유지>, fillcolor="#90c8f0"] ;
101 -> 151 ;
152 [label=<국내통화시간_분 &le; 729.3<br/>gini = 0.113<br/>samples = 232<br/>value = [218, 14]<br/>class = 이탈>, fillcolor="#e78946"] ;
151 -> 152 ;
153 [label=<서비스기간 &le; 46.567<br/>gini = 0.444<br/>samples = 3<br/>value = [1, 2]<br/>class = 유지>, fillcolor="#9ccef2"] ;
152 -> 153 ;
154 [label=<gini = 0.0<br/>samples = 1<br/>value = [1, 0]<br/>class = 이탈>, fillcolor="#e58139"] ;
153 -> 154 ;
155 [label=<gini = 0.0<br/>samples = 2<br/>value = [0, 2]<br/>class = 유지>, fillcolor="#399de5"] ;
153 -> 155 ;
156 [label=<단선횟수 &le; 1.5<br/>gini = 0.099<br/>samples = 229<br/>value = [217, 12]<br/>class = 이탈>, fillcolor="#e68844"] ;
152 -> 156 ;
157 [label=<국제통화시간_분 &le; 111.453<br/>gini = 0.155<br/>samples = 118<br/>value = [108, 10]<br/>class = 이탈>, fillcolor="#e78d4b"] ;
156 -> 157 ;
158 [label=<평균납부요금 &le; 0.175<br/>gini = 0.227<br/>samples = 46<br/>value = [40, 6]<br/>class = 이탈>, fillcolor="#e99457"] ;
157 -> 158 ;
159 [label=<gini = 0.198<br/>samples = 45<br/>value = [40, 5]<br/>class = 이탈>, fillcolor="#e89152"] ;
158 -> 159 ;
160 [label=<gini = 0.0<br/>samples = 1<br/>value = [0, 1]<br/>class = 유지>, fillcolor="#399de5"] ;
158 -> 160 ;
161 [label=<평균납부요금 &le; 0.186<br/>gini = 0.105<br/>samples = 72<br/>value = [68, 4]<br/>class = 이탈>, fillcolor="#e78845"] ;
157 -> 161 ;
162 [label=<gini = 0.038<br/>samples = 51<br/>value = [50, 1]<br/>class = 이탈>, fillcolor="#e6843d"] ;
161 -> 162 ;
163 [label=<gini = 0.245<br/>samples = 21<br/>value = [18, 3]<br/>class = 이탈>, fillcolor="#e9965a"] ;
161 -> 163 ;
164 [label=<연령 &le; 45.5<br/>gini = 0.035<br/>samples = 111<br/>value = [109, 2]<br/>class = 이탈>, fillcolor="#e5833d"] ;
156 -> 164 ;
165 [label=<gini = 0.0<br/>samples = 91<br/>value = [91, 0]<br/>class = 이탈>, fillcolor="#e58139"] ;
164 -> 165 ;
166 [label=<국제통화시간_분 &le; 66.353<br/>gini = 0.18<br/>samples = 20<br/>value = [18, 2]<br/>class = 이탈>, fillcolor="#e88f4f"] ;
164 -> 166 ;
167 [label=<gini = 0.408<br/>samples = 7<br/>value = [5, 2]<br/>class = 이탈>, fillcolor="#efb388"] ;
166 -> 167 ;
168 [label=<gini = 0.0<br/>samples = 13<br/>value = [13, 0]<br/>class = 이탈>, fillcolor="#e58139"] ;
166 -> 168 ;
169 [label=<서비스기간 &le; 15.483<br/>gini = 0.413<br/>samples = 10538<br/>value = [3068, 7470]<br/>class = 유지>, fillcolor="#8ac5f0"] ;
151 -> 169 ;
170 [label=<서비스기간 &le; 12.55<br/>gini = 0.488<br/>samples = 1611<br/>value = [682, 929]<br/>class = 유지>, fillcolor="#cae5f8"] ;
169 -> 170 ;
171 [label=<서비스기간 &le; 9.817<br/>gini = 0.416<br/>samples = 652<br/>value = [192, 460]<br/>class = 유지>, fillcolor="#8cc6f0"] ;
170 -> 171 ;
172 [label=<국제통화시간_분 &le; 508.329<br/>gini = 0.215<br/>samples = 49<br/>value = [6, 43]<br/>class = 유지>, fillcolor="#55abe9"] ;
171 -> 172 ;
173 [label=<gini = 0.156<br/>samples = 47<br/>value = [4, 43]<br/>class = 유지>, fillcolor="#4ba6e7"] ;
172 -> 173 ;
174 [label=<gini = 0.0<br/>samples = 2<br/>value = [2, 0]<br/>class = 이탈>, fillcolor="#e58139"] ;
172 -> 174 ;
175 [label=<국제통화시간_분 &le; 78.642<br/>gini = 0.427<br/>samples = 603<br/>value = [186, 417]<br/>class = 유지>, fillcolor="#91c9f1"] ;
171 -> 175 ;
176 [label=<gini = 0.361<br/>samples = 148<br/>value = [35, 113]<br/>class = 유지>, fillcolor="#76bbed"] ;
175 -> 176 ;
177 [label=<gini = 0.443<br/>samples = 455<br/>value = [151, 304]<br/>class = 유지>, fillcolor="#9bcef2"] ;
175 -> 177 ;
178 [label=<국제통화시간_분 &le; 177.964<br/>gini = 0.5<br/>samples = 959<br/>value = [490, 469]<br/>class = 이탈>, fillcolor="#fefaf7"] ;
170 -> 178 ;
179 [label=<국제통화시간_분 &le; 100.422<br/>gini = 0.482<br/>samples = 687<br/>value = [408, 279]<br/>class = 이탈>, fillcolor="#f7d7c0"] ;
178 -> 179 ;
180 [label=<gini = 0.465<br/>samples = 398<br/>value = [252, 146]<br/>class = 이탈>, fillcolor="#f4caac"] ;
179 -> 180 ;
181 [label=<gini = 0.497<br/>samples = 289<br/>value = [156, 133]<br/>class = 이탈>, fillcolor="#fbece2"] ;
179 -> 181 ;
182 [label=<연령 &le; 46.5<br/>gini = 0.421<br/>samples = 272<br/>value = [82, 190]<br/>class = 유지>, fillcolor="#8ec7f0"] ;
178 -> 182 ;
183 [label=<gini = 0.376<br/>samples = 215<br/>value = [54, 161]<br/>class = 유지>, fillcolor="#7bbeee"] ;
182 -> 183 ;
184 [label=<gini = 0.5<br/>samples = 57<br/>value = [28, 29]<br/>class = 유지>, fillcolor="#f8fcfe"] ;
182 -> 184 ;
185 [label=<요금제 &le; 3.5<br/>gini = 0.392<br/>samples = 8927<br/>value = [2386, 6541]<br/>class = 유지>, fillcolor="#81c1ee"] ;
169 -> 185 ;
186 [label=<평균납부요금 &le; 0.118<br/>gini = 0.403<br/>samples = 6865<br/>value = [1924, 4941]<br/>class = 유지>, fillcolor="#86c3ef"] ;
185 -> 186 ;
187 [label=<서비스기간 &le; 54.517<br/>gini = 0.481<br/>samples = 238<br/>value = [96, 142]<br/>class = 유지>, fillcolor="#bfdff7"] ;
186 -> 187 ;
188 [label=<gini = 0.49<br/>samples = 216<br/>value = [93, 123]<br/>class = 유지>, fillcolor="#cfe7f9"] ;
187 -> 188 ;
189 [label=<gini = 0.236<br/>samples = 22<br/>value = [3, 19]<br/>class = 유지>, fillcolor="#58ace9"] ;
187 -> 189 ;
190 [label=<성별 &le; 0.5<br/>gini = 0.4<br/>samples = 6627<br/>value = [1828, 4799]<br/>class = 유지>, fillcolor="#84c2ef"] ;
186 -> 190 ;
191 [label=<gini = 0.413<br/>samples = 3314<br/>value = [967, 2347]<br/>class = 유지>, fillcolor="#8bc5f0"] ;
190 -> 191 ;
192 [label=<gini = 0.385<br/>samples = 3313<br/>value = [861, 2452]<br/>class = 유지>, fillcolor="#7fbfee"] ;
190 -> 192 ;
193 [label=<국제통화시간_분 &le; 100.004<br/>gini = 0.348<br/>samples = 2062<br/>value = [462, 1600]<br/>class = 유지>, fillcolor="#72b9ed"] ;
185 -> 193 ;
194 [label=<성별 &le; 0.5<br/>gini = 0.414<br/>samples = 803<br/>value = [235, 568]<br/>class = 유지>, fillcolor="#8bc6f0"] ;
193 -> 194 ;
195 [label=<gini = 0.45<br/>samples = 413<br/>value = [141, 272]<br/>class = 유지>, fillcolor="#a0d0f2"] ;
194 -> 195 ;
196 [label=<gini = 0.366<br/>samples = 390<br/>value = [94, 296]<br/>class = 유지>, fillcolor="#78bced"] ;
194 -> 196 ;
197 [label=<국제통화시간_분 &le; 186.707<br/>gini = 0.296<br/>samples = 1259<br/>value = [227, 1032]<br/>class = 유지>, fillcolor="#65b3eb"] ;
193 -> 197 ;
198 [label=<gini = 0.138<br/>samples = 672<br/>value = [50, 622]<br/>class = 유지>, fillcolor="#49a5e7"] ;
197 -> 198 ;
199 [label=<gini = 0.421<br/>samples = 587<br/>value = [177, 410]<br/>class = 유지>, fillcolor="#8ec7f0"] ;
197 -> 199 ;
200 [label=<평균납부요금 &le; 0.063<br/>gini = 0.084<br/>samples = 1554<br/>value = [1486, 68]<br/>class = 이탈>, fillcolor="#e68742"] ;
0 -> 200 [labeldistance=2.5, labelangle=-45, headlabel="False"] ;
201 [label=<gini = 0.0<br/>samples = 1<br/>value = [0, 1]<br/>class = 유지>, fillcolor="#399de5"] ;
200 -> 201 ;
202 [label=<국제통화시간_분 &le; 0.024<br/>gini = 0.083<br/>samples = 1553<br/>value = [1486, 67]<br/>class = 이탈>, fillcolor="#e68742"] ;
200 -> 202 ;
203 [label=<gini = 0.0<br/>samples = 1<br/>value = [0, 1]<br/>class = 유지>, fillcolor="#399de5"] ;
202 -> 203 ;
204 [label=<국내통화시간_분 &le; 2734.35<br/>gini = 0.081<br/>samples = 1552<br/>value = [1486, 66]<br/>class = 이탈>, fillcolor="#e68742"] ;
202 -> 204 ;
205 [label=<연령 &le; 72.5<br/>gini = 0.078<br/>samples = 1540<br/>value = [1477, 63]<br/>class = 이탈>, fillcolor="#e68641"] ;
204 -> 205 ;
206 [label=<서비스기간 &le; 42.883<br/>gini = 0.076<br/>samples = 1534<br/>value = [1473, 61]<br/>class = 이탈>, fillcolor="#e68641"] ;
205 -> 206 ;
207 [label=<평균납부요금 &le; 0.149<br/>gini = 0.095<br/>samples = 1059<br/>value = [1006, 53]<br/>class = 이탈>, fillcolor="#e68843"] ;
206 -> 207 ;
208 [label=<평균납부요금 &le; 0.149<br/>gini = 0.13<br/>samples = 385<br/>value = [358, 27]<br/>class = 이탈>, fillcolor="#e78b48"] ;
207 -> 208 ;
209 [label=<gini = 0.126<br/>samples = 384<br/>value = [358, 26]<br/>class = 이탈>, fillcolor="#e78a47"] ;
208 -> 209 ;
210 [label=<gini = 0.0<br/>samples = 1<br/>value = [0, 1]<br/>class = 유지>, fillcolor="#399de5"] ;
208 -> 210 ;
211 [label=<서비스기간 &le; 42.75<br/>gini = 0.074<br/>samples = 674<br/>value = [648, 26]<br/>class = 이탈>, fillcolor="#e68641"] ;
207 -> 211 ;
212 [label=<gini = 0.072<br/>samples = 671<br/>value = [646, 25]<br/>class = 이탈>, fillcolor="#e68641"] ;
211 -> 212 ;
213 [label=<gini = 0.444<br/>samples = 3<br/>value = [2, 1]<br/>class = 이탈>, fillcolor="#f2c09c"] ;
211 -> 213 ;
214 [label=<국제통화시간_분 &le; 1.607<br/>gini = 0.033<br/>samples = 475<br/>value = [467, 8]<br/>class = 이탈>, fillcolor="#e5833c"] ;
206 -> 214 ;
215 [label=<국제통화시간_분 &le; 1.249<br/>gini = 0.32<br/>samples = 5<br/>value = [4, 1]<br/>class = 이탈>, fillcolor="#eca06a"] ;
214 -> 215 ;
216 [label=<gini = 0.0<br/>samples = 4<br/>value = [4, 0]<br/>class = 이탈>, fillcolor="#e58139"] ;
215 -> 216 ;
217 [label=<gini = 0.0<br/>samples = 1<br/>value = [0, 1]<br/>class = 유지>, fillcolor="#399de5"] ;
215 -> 217 ;
218 [label=<연령 &le; 34.5<br/>gini = 0.029<br/>samples = 470<br/>value = [463, 7]<br/>class = 이탈>, fillcolor="#e5833c"] ;
214 -> 218 ;
219 [label=<gini = 0.012<br/>samples = 322<br/>value = [320, 2]<br/>class = 이탈>, fillcolor="#e5823a"] ;
218 -> 219 ;
220 [label=<gini = 0.065<br/>samples = 148<br/>value = [143, 5]<br/>class = 이탈>, fillcolor="#e68540"] ;
218 -> 220 ;
221 [label=<요금제 &le; 3.5<br/>gini = 0.444<br/>samples = 6<br/>value = [4, 2]<br/>class = 이탈>, fillcolor="#f2c09c"] ;
205 -> 221 ;
222 [label=<국제통화시간_분 &le; 352.423<br/>gini = 0.32<br/>samples = 5<br/>value = [4, 1]<br/>class = 이탈>, fillcolor="#eca06a"] ;
221 -> 222 ;
223 [label=<gini = 0.0<br/>samples = 3<br/>value = [3, 0]<br/>class = 이탈>, fillcolor="#e58139"] ;
222 -> 223 ;
224 [label=<서비스기간 &le; 40.583<br/>gini = 0.5<br/>samples = 2<br/>value = [1, 1]<br/>class = 이탈>, fillcolor="#ffffff"] ;
222 -> 224 ;
225 [label=<gini = 0.0<br/>samples = 1<br/>value = [0, 1]<br/>class = 유지>, fillcolor="#399de5"] ;
224 -> 225 ;
226 [label=<gini = 0.0<br/>samples = 1<br/>value = [1, 0]<br/>class = 이탈>, fillcolor="#e58139"] ;
224 -> 226 ;
227 [label=<gini = 0.0<br/>samples = 1<br/>value = [0, 1]<br/>class = 유지>, fillcolor="#399de5"] ;
221 -> 227 ;
228 [label=<국내통화시간_분 &le; 2766.55<br/>gini = 0.375<br/>samples = 12<br/>value = [9, 3]<br/>class = 이탈>, fillcolor="#eeab7b"] ;
204 -> 228 ;
229 [label=<gini = 0.0<br/>samples = 1<br/>value = [0, 1]<br/>class = 유지>, fillcolor="#399de5"] ;
228 -> 229 ;
230 [label=<연령 &le; 27.5<br/>gini = 0.298<br/>samples = 11<br/>value = [9, 2]<br/>class = 이탈>, fillcolor="#eb9d65"] ;
228 -> 230 ;
231 [label=<gini = 0.0<br/>samples = 6<br/>value = [6, 0]<br/>class = 이탈>, fillcolor="#e58139"] ;
230 -> 231 ;
232 [label=<국내통화시간_분 &le; 2919.75<br/>gini = 0.48<br/>samples = 5<br/>value = [3, 2]<br/>class = 이탈>, fillcolor="#f6d5bd"] ;
230 -> 232 ;
233 [label=<평균납부요금 &le; 0.142<br/>gini = 0.444<br/>samples = 3<br/>value = [1, 2]<br/>class = 유지>, fillcolor="#9ccef2"] ;
232 -> 233 ;
234 [label=<gini = 0.0<br/>samples = 2<br/>value = [0, 2]<br/>class = 유지>, fillcolor="#399de5"] ;
233 -> 234 ;
235 [label=<gini = 0.0<br/>samples = 1<br/>value = [1, 0]<br/>class = 이탈>, fillcolor="#e58139"] ;
233 -> 235 ;
236 [label=<gini = 0.0<br/>samples = 2<br/>value = [2, 0]<br/>class = 이탈>, fillcolor="#e58139"] ;
232 -> 236 ;
}